<Nnet> 
<Splice> 440 40 
[ -5 -4 -3 -2 -1 0 1 2 3 4 5 ]
<AddShift> 440 440 
<LearnRateCoef> 0  [ -0.06522655 0.0002141315 0.005124171 -0.001846763 0.1754726 -0.007131582 -0.006113287 -0.01294493 -0.03508598 0.0260089 0.01123799 -0.1010567 -0.002819324 -0.004537406 -0.03530767 -0.002105878 -0.009970731 0.002311355 0.001892821 0.03701058 0.01874744 -0.007736473 0.0001998968 0.0153895 -0.0002225109 -0.07107288 0.004110725 -0.005173244 0.03786257 0.04458467 -0.009527593 2.111733e-05 -0.0347869 0.01306838 -0.05921004 -0.01742718 -0.002747405 0.003849261 0.005429254 0.008965209 -0.06170871 8.868811e-05 0.004584467 -0.002007682 0.1728349 -0.006878178 -0.006359021 -0.01362407 -0.03510268 0.02779283 0.01151034 -0.100776 -0.002746942 -0.003362969 -0.03493959 -0.001466822 -0.009820901 0.002346946 0.002263694 0.03755833 0.01881829 -0.007978037 0.0003618303 0.01532738 -0.0002696269 -0.07015759 0.003882324 -0.005077464 0.03830123 0.04498277 -0.009530316 8.763823e-05 -0.03379996 0.01291401 -0.05830383 -0.0171892 -0.002762576 0.003720648 0.005502084 0.009586285 -0.0586055 -0.0002319084 0.004077964 -0.002180507 0.1705745 -0.006566951 -0.006631722 -0.01435708 -0.03510141 0.02940618 0.0117686 -0.100467 -0.002682304 -0.002360137 -0.03454554 -0.0008198601 -0.009702239 0.002365105 0.002567331 0.03805398 0.01890147 -0.008227921 0.0005048179 0.01524559 -0.0003112104 -0.06941982 0.00363998 -0.00495739 0.03864453 0.04545049 -0.009574345 0.0001059861 -0.03298686 0.01278485 -0.05749727 -0.01698598 -0.002802426 0.003579656 0.005620499 0.01014936 -0.0558221 -0.0006980306 0.003607477 -0.002388023 0.1685892 -0.006195723 -0.006892963 -0.01513456 -0.03480444 0.03087658 0.01202981 -0.09994978 -0.002560173 -0.001519635 -0.03413827 -0.0002491116 -0.009606558 0.00237095 0.002834296 0.03853309 0.01914634 -0.008463902 0.0007220684 0.01539901 -0.0003436196 -0.06888341 0.0033972 -0.004771195 0.03888816 0.04600048 -0.009609306 0.0001266432 -0.03222799 0.01265115 -0.05675151 -0.01679743 -0.002840083 0.003527492 0.005783645 0.01065835 -0.05324014 -0.001307938 0.003164835 -0.002650708 0.1668971 -0.005771394 -0.007131777 -0.01595094 -0.03437762 0.03221724 0.01228021 -0.09933048 -0.002427218 -0.0007955444 -0.03371631 0.0001734841 -0.009491078 0.002459139 0.003234253 0.03897037 0.01949158 -0.008690858 0.001015969 0.0153786 -0.0003963171 -0.06853176 0.003212182 -0.004599637 0.03914791 0.04659885 -0.009629702 0.0001687663 -0.03150287 0.01250616 -0.05615509 -0.01671901 -0.002852231 0.003469584 0.005949171 0.01114685 -0.05079869 -0.002047496 0.002734685 -0.003032552 0.1654737 -0.005307083 -0.007307987 -0.01677966 -0.03388152 0.03345294 0.01249253 -0.09866725 -0.002315889 -0.0002062429 -0.03326757 0.0004321859 -0.009306776 0.002600014 0.003607139 0.03937237 0.01986052 -0.008915586 0.001339388 0.01508602 -0.0004373265 -0.06845096 0.003105438 -0.004445634 0.03942024 0.04727123 -0.009694344 0.0002191572 -0.03079319 0.01237351 -0.05552075 -0.01659691 -0.002822758 0.003303405 0.006061821 0.01153103 -0.04835724 -0.002787054 0.002304535 -0.003414395 0.1640503 -0.004842773 -0.007484197 -0.01760838 -0.03338541 0.03468863 0.01270486 -0.09800401 -0.00220456 0.0003830586 -0.03281882 0.0006908877 -0.009122475 0.002740889 0.003980025 0.03977437 0.02022946 -0.009140316 0.001662806 0.01479345 -0.0004783358 -0.06837016 0.002998695 -0.00429163 0.03969257 0.04794361 -0.009758987 0.000269548 -0.03008351 0.01224086 -0.05488643 -0.01647481 -0.002793286 0.003137225 0.006174471 0.0119152 -0.04590944 -0.003321779 0.001858031 -0.003977811 0.1626626 -0.004465676 -0.007608193 -0.01837296 -0.03296401 0.03589925 0.01294304 -0.09735659 -0.002118196 0.0009855719 -0.0324307 0.0008784742 -0.008861301 0.002897 0.003960509 0.04017096 0.02053679 -0.009346772 0.00202428 0.01448394 -0.0004919716 -0.06829263 0.002935087 -0.004143747 0.04010991 0.04837583 -0.009810118 0.0002205623 -0.02916486 0.01209674 -0.05433226 -0.01624145 -0.002742122 0.002953249 0.006338701 0.01231343 -0.04348183 -0.003655659 0.001386057 -0.004697748 0.1612219 -0.004189145 -0.007696309 -0.01905414 -0.03262704 0.03708223 0.01320712 -0.09668095 -0.002053031 0.001605809 -0.0321514 0.001013732 -0.008520283 0.002871456 0.003907201 0.04057836 0.02066924 -0.009513889 0.002309779 0.01415821 -0.0004882018 -0.06812452 0.002921439 -0.004014724 0.04050471 0.04856322 -0.009744744 0.0001650514 -0.028085 0.01194543 -0.05406679 -0.01608287 -0.002738192 0.00275117 0.006523753 0.01272219 -0.04104875 -0.003778083 0.0008972117 -0.005459866 0.1598185 -0.004036604 -0.007784518 -0.01965385 -0.03247626 0.03824896 0.01346043 -0.09617023 -0.002019762 0.002054128 -0.0319684 0.001091073 -0.008136597 0.002544903 0.003918123 0.04098648 0.02063546 -0.009645148 0.002532695 0.01382847 -0.0004644825 -0.06798694 0.002947876 -0.003951283 0.04070253 0.0485304 -0.0095714 5.551806e-05 -0.02696541 0.0117906 -0.05373341 -0.01589084 -0.0027053 0.002671293 0.006742529 0.01311994 -0.03862072 -0.003668986 0.0003738069 -0.006076054 0.1583908 -0.00402 -0.007861987 -0.02015531 -0.03246597 0.03940729 0.01369082 -0.09583206 -0.002037341 0.002508288 -0.03188436 0.001195717 -0.007774464 0.002169796 0.003990056 0.04137597 0.02056966 -0.009775274 0.002719141 0.01358185 -0.0004201147 -0.06777111 0.00300194 -0.003886783 0.04068518 0.04829365 -0.009507015 4.626419e-05 -0.02595727 0.01164173 -0.05340173 -0.01563576 -0.00268045 0.002590752 0.006988822 0.01348988 ]
<Rescale> 440 440 
<LearnRateCoef> 0  [ 0.3172759 0.5028816 0.5221678 0.7492633 0.5509114 0.6886111 0.7990271 0.5839865 0.5976508 0.6831101 0.782268 0.5397243 0.8538354 0.6607419 0.7669678 0.8548366 0.886041 0.7590362 0.6432137 0.6929321 0.8005329 0.9153665 0.8951269 0.6624877 0.9488093 0.5630499 0.9386954 0.9200169 0.7585791 0.9045385 0.9155079 0.9431204 0.8563595 0.957602 0.6084691 0.7661079 0.9474695 0.938448 0.9424649 0.9886767 0.3177288 0.5028945 0.5220032 0.749272 0.5511744 0.6885593 0.7987968 0.5841078 0.5976762 0.6832328 0.7821692 0.5398053 0.853837 0.6608165 0.7669617 0.8546516 0.8859674 0.7586907 0.6430965 0.6927614 0.800438 0.9151856 0.8950955 0.6625168 0.9486868 0.5630527 0.9385667 0.9196721 0.758414 0.9044413 0.9151599 0.9426023 0.856001 0.9574281 0.6083023 0.7659787 0.947289 0.9377759 0.9422826 0.9883511 0.3181379 0.502874 0.5218565 0.7492976 0.551413 0.6885497 0.7985996 0.5842475 0.5977048 0.6833717 0.7821004 0.539894 0.8538555 0.6608879 0.767 0.8545256 0.8859109 0.7583685 0.6429904 0.6926212 0.8003947 0.9150586 0.8950958 0.6625504 0.9485984 0.5630758 0.9384776 0.9193399 0.7583709 0.9044304 0.9148321 0.9421175 0.8557069 0.9573029 0.6081323 0.7658352 0.9471295 0.9371164 0.9421279 0.9880994 0.318512 0.5028176 0.5217211 0.7493279 0.5516421 0.688565 0.7984466 0.584398 0.5977982 0.6835059 0.7820299 0.5400832 0.8539331 0.6609384 0.7670417 0.8543391 0.8857996 0.7580637 0.6428958 0.6924838 0.8004929 0.9149475 0.895252 0.6626018 0.9484974 0.5631376 0.9383228 0.9190438 0.7582585 0.9044518 0.9145966 0.9416951 0.8554258 0.9571941 0.6079857 0.7657136 0.9469679 0.9365888 0.9419996 0.9878831 0.3188644 0.5027167 0.5215898 0.7493887 0.5518484 0.6885958 0.7983296 0.5845573 0.5979123 0.6836113 0.78194 0.540333 0.8540893 0.6609837 0.7670538 0.854169 0.8856701 0.7577756 0.6428086 0.6923333 0.8007085 0.9148237 0.8956095 0.6626835 0.9483766 0.5631978 0.9380875 0.919149 0.7584511 0.90434 0.9143806 0.941452 0.8551528 0.9570771 0.6078425 0.765599 0.9469722 0.9360781 0.9418927 0.9876549 0.3191967 0.5025661 0.5214551 0.749553 0.5520265 0.6886225 0.798252 0.584717 0.5980376 0.6836533 0.7818783 0.5406042 0.8542857 0.6610177 0.7670031 0.8541528 0.8856385 0.7575228 0.6427439 0.6921559 0.8009662 0.9146355 0.8960385 0.6628216 0.9482808 0.5633615 0.9379013 0.9196531 0.7592089 0.9038986 0.9142799 0.9414715 0.8549312 0.9569399 0.6077204 0.7655087 0.9471878 0.9357553 0.9418061 0.9874142 0.3195301 0.5024158 0.5213205 0.7497175 0.5522051 0.6886493 0.7981744 0.5848771 0.598163 0.6836959 0.7818167 0.5408759 0.8544821 0.6610516 0.7669525 0.8541366 0.8856068 0.7572702 0.6426792 0.6919786 0.8012242 0.9144475 0.896468 0.6629597 0.9481851 0.5635254 0.9377151 0.9201581 0.7599689 0.9034582 0.9141793 0.9414908 0.85471 0.9568028 0.6075985 0.7654184 0.9474034 0.9354328 0.9417195 0.9871738 0.3198656 0.5022914 0.5211698 0.749943 0.5524043 0.6886157 0.7981804 0.5850107 0.5982811 0.6836579 0.7818549 0.541163 0.8547158 0.6610935 0.7667698 0.8542489 0.8857555 0.757102 0.6427328 0.6917495 0.8016365 0.9141746 0.897018 0.6631059 0.9482027 0.5637067 0.9378434 0.9208136 0.7606332 0.9027377 0.9141312 0.9416716 0.85505 0.9566063 0.6076085 0.7654133 0.9477019 0.9351509 0.9417576 0.9868712 0.3201997 0.5021985 0.5210044 0.7501866 0.552666 0.6885282 0.7982158 0.5851154 0.5983987 0.6835628 0.7819067 0.5414967 0.8549659 0.6611655 0.7664819 0.8543735 0.8859374 0.7570824 0.6427999 0.6914833 0.8021565 0.9138466 0.8975797 0.6632617 0.9482263 0.5639219 0.9379092 0.9216946 0.761391 0.9019069 0.9141909 0.942119 0.8554421 0.9563643 0.6076598 0.7654222 0.9481058 0.9351194 0.9417799 0.9865326 0.3205374 0.5021483 0.5208303 0.7504243 0.552951 0.6883977 0.7982345 0.5851942 0.5985022 0.683439 0.7819179 0.5418127 0.8552174 0.6612578 0.766123 0.8544245 0.8860648 0.7572965 0.6428819 0.6911948 0.802779 0.9134905 0.8981729 0.6634325 0.9482176 0.5641708 0.9378181 0.9226663 0.7622652 0.9010051 0.9144925 0.9426349 0.8556945 0.9561105 0.6077752 0.765527 0.9485416 0.9354343 0.9418041 0.9861991 0.3208806 0.5021574 0.5206473 0.750658 0.5532701 0.6882339 0.79826 0.5852484 0.5985937 0.6833116 0.7819304 0.5421123 0.8554968 0.6613575 0.7657356 0.8544897 0.8862173 0.7575539 0.6429799 0.6909047 0.8034175 0.9131227 0.8987413 0.6636103 0.9482145 0.5644533 0.9377139 0.9236009 0.7631959 0.9000825 0.9147975 0.9432189 0.855972 0.9558569 0.6078986 0.7656364 0.9490147 0.9358162 0.9418318 0.985859 ]
</Nnet> 
